digraph Tree {
node [shape=box, style="filled, rounded", color="black", fontname=helvetica] ;
edge [fontname=helvetica] ;
0 [label="safety_cod <= 0.5\nentropy = 1.206\nsamples = 1728\nvalue = [1210, 384, 65, 69]\nclass = unacc", fillcolor="#e581399d"] ;
1 [label="entropy = 0.0\nsamples = 576\nvalue = [576, 0, 0, 0]\nclass = unacc", fillcolor="#e58139ff"] ;
0 -> 1 [labeldistance=2.5, labelangle=45, headlabel="True"] ;
2 [label="persons_cod <= 0.5\nentropy = 1.48\nsamples = 1152\nvalue = [634, 384, 65, 69]\nclass = unacc", fillcolor="#e5813953"] ;
0 -> 2 [labeldistance=2.5, labelangle=-45, headlabel="False"] ;
3 [label="entropy = 0.0\nsamples = 384\nvalue = [384, 0, 0, 0]\nclass = unacc", fillcolor="#e58139ff"] ;
2 -> 3 ;
4 [label="buying_cod <= 1.5\nentropy = 1.641\nsamples = 768\nvalue = [250, 384, 65, 69]\nclass = acc", fillcolor="#47e53942"] ;
2 -> 4 ;
5 [label="maint_cod <= 0.5\nentropy = 0.997\nsamples = 384\nvalue = [204, 180, 0, 0]\nclass = unacc", fillcolor="#e581391e"] ;
4 -> 5 ;
6 [label="entropy = 0.0\nsamples = 96\nvalue = [96, 0, 0, 0]\nclass = unacc", fillcolor="#e58139ff"] ;
5 -> 6 ;
7 [label="lug_boot_cod <= 0.5\nentropy = 0.954\nsamples = 288\nvalue = [108, 180, 0, 0]\nclass = acc", fillcolor="#47e53966"] ;
5 -> 7 ;
8 [label="safety_cod <= 1.5\nentropy = 0.946\nsamples = 96\nvalue = [61, 35, 0, 0]\nclass = unacc", fillcolor="#e581396d"] ;
7 -> 8 ;
9 [label="entropy = 0.0\nsamples = 48\nvalue = [48, 0, 0, 0]\nclass = unacc", fillcolor="#e58139ff"] ;
8 -> 9 ;
10 [label="maint_cod <= 1.5\nentropy = 0.843\nsamples = 48\nvalue = [13, 35, 0, 0]\nclass = acc", fillcolor="#47e539a0"] ;
8 -> 10 ;
11 [label="entropy = 0.989\nsamples = 16\nvalue = [9, 7, 0, 0]\nclass = unacc", fillcolor="#e5813939"] ;
10 -> 11 ;
12 [label="entropy = 0.544\nsamples = 32\nvalue = [4, 28, 0, 0]\nclass = acc", fillcolor="#47e539db"] ;
10 -> 12 ;
13 [label="maint_cod <= 1.5\nentropy = 0.803\nsamples = 192\nvalue = [47, 145, 0, 0]\nclass = acc", fillcolor="#47e539ac"] ;
7 -> 13 ;
14 [label="buying_cod <= 0.5\nentropy = 0.994\nsamples = 64\nvalue = [35, 29, 0, 0]\nclass = unacc", fillcolor="#e581392c"] ;
13 -> 14 ;
15 [label="entropy = 0.0\nsamples = 32\nvalue = [32, 0, 0, 0]\nclass = unacc", fillcolor="#e58139ff"] ;
14 -> 15 ;
16 [label="entropy = 0.449\nsamples = 32\nvalue = [3, 29, 0, 0]\nclass = acc", fillcolor="#47e539e5"] ;
14 -> 16 ;
17 [label="lug_boot_cod <= 1.5\nentropy = 0.449\nsamples = 128\nvalue = [12, 116, 0, 0]\nclass = acc", fillcolor="#47e539e5"] ;
13 -> 17 ;
18 [label="entropy = 0.696\nsamples = 64\nvalue = [12, 52, 0, 0]\nclass = acc", fillcolor="#47e539c4"] ;
17 -> 18 ;
19 [label="entropy = 0.0\nsamples = 64\nvalue = [0, 64, 0, 0]\nclass = acc", fillcolor="#47e539ff"] ;
17 -> 19 ;
20 [label="maint_cod <= 1.5\nentropy = 1.73\nsamples = 384\nvalue = [46, 204, 65, 69]\nclass = acc", fillcolor="#47e5396d"] ;
4 -> 20 ;
21 [label="safety_cod <= 1.5\nentropy = 1.053\nsamples = 192\nvalue = [38, 141, 13, 0]\nclass = acc", fillcolor="#47e539ab"] ;
20 -> 21 ;
22 [label="lug_boot_cod <= 0.5\nentropy = 0.938\nsamples = 96\nvalue = [34, 62, 0, 0]\nclass = acc", fillcolor="#47e53973"] ;
21 -> 22 ;
23 [label="maint_cod <= 0.5\nentropy = 0.758\nsamples = 32\nvalue = [25, 7, 0, 0]\nclass = unacc", fillcolor="#e58139b8"] ;
22 -> 23 ;
24 [label="entropy = 0.0\nsamples = 16\nvalue = [16, 0, 0, 0]\nclass = unacc", fillcolor="#e58139ff"] ;
23 -> 24 ;
25 [label="entropy = 0.989\nsamples = 16\nvalue = [9, 7, 0, 0]\nclass = unacc", fillcolor="#e5813939"] ;
23 -> 25 ;
26 [label="doors_cod <= 1.5\nentropy = 0.586\nsamples = 64\nvalue = [9, 55, 0, 0]\nclass = acc", fillcolor="#47e539d5"] ;
22 -> 26 ;
27 [label="entropy = 0.857\nsamples = 32\nvalue = [9, 23, 0, 0]\nclass = acc", fillcolor="#47e5399b"] ;
26 -> 27 ;
28 [label="entropy = 0.0\nsamples = 32\nvalue = [0, 32, 0, 0]\nclass = acc", fillcolor="#47e539ff"] ;
26 -> 28 ;
29 [label="maint_cod <= 0.5\nentropy = 0.813\nsamples = 96\nvalue = [4, 79, 13, 0]\nclass = acc", fillcolor="#47e539cb"] ;
21 -> 29 ;
30 [label="doors_cod <= 0.5\nentropy = 0.25\nsamples = 48\nvalue = [2, 46, 0, 0]\nclass = acc", fillcolor="#47e539f4"] ;
29 -> 30 ;
31 [label="entropy = 0.65\nsamples = 12\nvalue = [2, 10, 0, 0]\nclass = acc", fillcolor="#47e539cc"] ;
30 -> 31 ;
32 [label="entropy = 0.0\nsamples = 36\nvalue = [0, 36, 0, 0]\nclass = acc", fillcolor="#47e539ff"] ;
30 -> 32 ;
33 [label="buying_cod <= 2.5\nentropy = 1.073\nsamples = 48\nvalue = [2, 33, 13, 0]\nclass = acc", fillcolor="#47e53992"] ;
29 -> 33 ;
34 [label="entropy = 0.25\nsamples = 24\nvalue = [1, 23, 0, 0]\nclass = acc", fillcolor="#47e539f4"] ;
33 -> 34 ;
35 [label="entropy = 1.196\nsamples = 24\nvalue = [1, 10, 13, 0]\nclass = vgood", fillcolor="#399de537"] ;
33 -> 35 ;
36 [label="safety_cod <= 1.5\nentropy = 1.76\nsamples = 192\nvalue = [8, 63, 52, 69]\nclass = good", fillcolor="#d739e50c"] ;
20 -> 36 ;
37 [label="lug_boot_cod <= 0.5\nentropy = 1.192\nsamples = 96\nvalue = [4, 53, 0, 39]\nclass = acc", fillcolor="#47e5393f"] ;
36 -> 37 ;
38 [label="doors_cod <= 0.5\nentropy = 0.544\nsamples = 32\nvalue = [4, 28, 0, 0]\nclass = acc", fillcolor="#47e539db"] ;
37 -> 38 ;
39 [label="entropy = 1.0\nsamples = 8\nvalue = [4, 4, 0, 0]\nclass = unacc", fillcolor="#e5813900"] ;
38 -> 39 ;
40 [label="entropy = 0.0\nsamples = 24\nvalue = [0, 24, 0, 0]\nclass = acc", fillcolor="#47e539ff"] ;
38 -> 40 ;
41 [label="maint_cod <= 2.5\nentropy = 0.965\nsamples = 64\nvalue = [0, 25, 0, 39]\nclass = good", fillcolor="#d739e55c"] ;
37 -> 41 ;
42 [label="entropy = 0.974\nsamples = 32\nvalue = [0, 19, 0, 13]\nclass = acc", fillcolor="#47e53951"] ;
41 -> 42 ;
43 [label="entropy = 0.696\nsamples = 32\nvalue = [0, 6, 0, 26]\nclass = good", fillcolor="#d739e5c4"] ;
41 -> 43 ;
44 [label="lug_boot_cod <= 0.5\nentropy = 1.534\nsamples = 96\nvalue = [4, 10, 52, 30]\nclass = vgood", fillcolor="#399de555"] ;
36 -> 44 ;
45 [label="doors_cod <= 0.5\nentropy = 1.253\nsamples = 32\nvalue = [4, 7, 0, 21]\nclass = good", fillcolor="#d739e58f"] ;
44 -> 45 ;
46 [label="entropy = 1.406\nsamples = 8\nvalue = [4, 1, 0, 3]\nclass = unacc", fillcolor="#e5813933"] ;
45 -> 46 ;
47 [label="entropy = 0.811\nsamples = 24\nvalue = [0, 6, 0, 18]\nclass = good", fillcolor="#d739e5aa"] ;
45 -> 47 ;
48 [label="lug_boot_cod <= 1.5\nentropy = 0.848\nsamples = 64\nvalue = [0, 3, 52, 9]\nclass = vgood", fillcolor="#399de5c7"] ;
44 -> 48 ;
49 [label="entropy = 1.259\nsamples = 32\nvalue = [0, 3, 20, 9]\nclass = vgood", fillcolor="#399de57a"] ;
48 -> 49 ;
50 [label="entropy = 0.0\nsamples = 32\nvalue = [0, 0, 32, 0]\nclass = vgood", fillcolor="#399de5ff"] ;
48 -> 50 ;
}